Language model created by QuickLM on Sun Aug 27 23:07:42 EDT 2017
Copyright (c) 1996-2010 Carnegie Mellon University and Alexander I. Rudnicky

The model is in standard ARPA format, designed by Doug Paul while he was at MITRE.

The code that was used to produce this language model is available in Open Source.
Please visit http://www.speech.cs.cmu.edu/tools/ for more information

The (fixed) discount mass is 0.5. The backoffs are computed using the ratio method.
This model based on a corpus of 16 sentences and 28 words

\data\
ngram 1=28
ngram 2=44
ngram 3=48

\1-grams:
-1.6021 25 -0.2900
-1.0969 </s> -0.3010
-1.0969 <s> -0.2648
-2.0000 今天 -0.2833
-1.6990 关闭 -0.2765
-2.3010 卧室 -0.2856
-2.0000 台灯 -0.2648
-2.3010 吗 -0.2967
-2.3010 听 -0.2989
-2.3010 天气 -0.2989
-1.6021 客厅 -0.2856
-2.3010 将 -0.2900
-2.0000 小米 -0.2967
-2.3010 带伞 -0.2989
-1.6021 度 -0.2648
-2.3010 怎样 -0.2967
-2.3010 我要 -0.2989
-1.6990 打开 -0.2765
-1.6990 把 -0.2718
-2.0000 电视 -0.2648
-1.4559 的 -0.2833
-2.0000 盒子 -0.2648
-1.4559 空调 -0.2529
-1.6990 设为 -0.2900
-2.3010 调为 -0.2900
-2.3010 需要 -0.2989
-2.3010 音乐 -0.2648
-2.0000 ？ -0.2648

\2-grams:
-0.3010 25 度 0.0000
-1.2041 <s> 今天 0.0000
-0.9031 <s> 关闭 0.0000
-1.5051 <s> 将 0.0000
-1.5051 <s> 我要 0.0000
-0.9031 <s> 打开 0.0000
-0.9031 <s> 把 0.0000
-0.6021 今天 的 -0.2688
-0.6021 今天 需要 0.0000
-0.9031 关闭 台灯 0.0000
-0.9031 关闭 客厅 0.0000
-0.9031 关闭 小米 0.0000
-0.9031 关闭 电视 0.0000
-0.3010 卧室 的 -0.0580
-0.3010 台灯 </s> -0.3010
-0.3010 吗 ？ 0.0000
-0.3010 听 音乐 0.0000
-0.3010 天气 怎样 0.0000
-0.3010 客厅 的 -0.0580
-0.3010 将 客厅 0.0000
-0.3010 小米 盒子 0.0000
-0.3010 带伞 吗 0.0000
-0.3010 度 </s> -0.3010
-0.3010 怎样 ？ 0.0000
-0.3010 我要 听 0.0000
-0.9031 打开 台灯 0.0000
-0.9031 打开 客厅 0.0000
-0.9031 打开 小米 0.0000
-0.9031 打开 电视 0.0000
-0.9031 把 卧室 0.0000
-0.6021 把 客厅 0.0000
-0.9031 把 空调 -0.1549
-0.3010 电视 </s> -0.3010
-1.1461 的 天气 0.0000
-0.3680 的 空调 0.0000
-0.3010 盒子 </s> -0.3010
-0.8451 空调 </s> -0.3010
-0.5441 空调 设为 0.0000
-1.1461 空调 调为 0.0000
-0.3010 设为 25 0.0000
-0.3010 调为 25 0.0000
-0.3010 需要 带伞 0.0000
-0.3010 音乐 </s> -0.3010
-0.3010 ？ </s> -0.3010

\3-grams:
-0.3010 25 度 </s>
-0.6021 <s> 今天 的
-0.6021 <s> 今天 需要
-0.9031 <s> 关闭 台灯
-0.9031 <s> 关闭 客厅
-0.9031 <s> 关闭 小米
-0.9031 <s> 关闭 电视
-0.3010 <s> 将 客厅
-0.3010 <s> 我要 听
-0.9031 <s> 打开 台灯
-0.9031 <s> 打开 客厅
-0.9031 <s> 打开 小米
-0.9031 <s> 打开 电视
-0.9031 <s> 把 卧室
-0.6021 <s> 把 客厅
-0.9031 <s> 把 空调
-0.3010 今天 的 天气
-0.3010 今天 需要 带伞
-0.3010 关闭 台灯 </s>
-0.3010 关闭 客厅 的
-0.3010 关闭 小米 盒子
-0.3010 关闭 电视 </s>
-0.3010 卧室 的 空调
-0.3010 吗 ？ </s>
-0.3010 听 音乐 </s>
-0.3010 天气 怎样 ？
-0.3010 客厅 的 空调
-0.3010 将 客厅 的
-0.3010 小米 盒子 </s>
-0.3010 带伞 吗 ？
-0.3010 怎样 ？ </s>
-0.3010 我要 听 音乐
-0.3010 打开 台灯 </s>
-0.3010 打开 客厅 的
-0.3010 打开 小米 盒子
-0.3010 打开 电视 </s>
-0.3010 把 卧室 的
-0.3010 把 客厅 的
-0.3010 把 空调 设为
-0.3010 的 天气 怎样
-0.7782 的 空调 </s>
-0.6021 的 空调 设为
-1.0792 的 空调 调为
-0.3010 空调 设为 25
-0.3010 空调 调为 25
-0.3010 设为 25 度
-0.3010 调为 25 度
-0.3010 需要 带伞 吗

\end\
